GraphicEQ: 20 -11.02; 21 -11.19; 22 -11.39; 23 -11.62; 24 -11.86; 26 -12.32; 27 -12.54; 29 -12.92; 31 -13.27; 32 -13.41; 34 -13.68; 36 -13.91; 38 -14.13; 40 -14.29; 43 -14.45; 45 -14.52; 48 -14.61; 50 -14.65; 53 -14.71; 56 -14.75; 59 -14.80; 63 -14.88; 66 -14.94; 70 -15.02; 74 -15.11; 78 -15.18; 83 -15.21; 87 -15.19; 92 -15.10; 98 -14.96; 103 -14.83; 109 -14.66; 115 -14.49; 122 -14.31; 128 -14.18; 136 -14.02; 143 -13.87; 152 -13.63; 160 -13.36; 169 -13.03; 179 -12.70; 189 -12.44; 199 -12.20; 211 -11.86; 223 -11.45; 235 -10.97; 249 -10.45; 263 -10.02; 277 -9.73; 293 -9.47; 310 -9.24; 327 -9.23; 346 -9.59; 365 -10.13; 386 -10.69; 407 -11.19; 430 -11.76; 455 -12.40; 480 -13.00; 507 -13.54; 536 -13.95; 566 -14.20; 598 -14.29; 632 -14.25; 668 -14.12; 705 -13.96; 745 -13.74; 787 -13.50; 831 -13.28; 878 -13.10; 928 -12.97; 980 -12.89; 1035 -12.83; 1094 -12.68; 1155 -12.34; 1221 -11.79; 1289 -11.12; 1362 -10.41; 1439 -9.79; 1520 -9.26; 1606 -8.68; 1696 -7.98; 1792 -7.23; 1893 -6.56; 1999 -6.04; 2112 -5.74; 2231 -5.61; 2357 -5.71; 2490 -6.20; 2630 -6.81; 2778 -7.26; 2935 -7.63; 3100 -7.86; 3275 -7.60; 3460 -6.91; 3655 -6.12; 3861 -5.27; 4078 -4.05; 4308 -2.27; 4551 -0.50; 4808 -0.76; 5078 -4.45; 5365 -8.65; 5667 -10.49; 5986 -10.90; 6324 -11.78; 6680 -13.31; 7057 -14.53; 7454 -13.89; 7874 -11.32; 8318 -8.60; 8787 -6.65; 9282 -5.34; 9805 -4.49; 10358 -3.94; 10942 -3.87; 11558 -4.29; 12210 -5.19; 12898 -5.75; 13625 -6.43; 14393 -7.32; 15204 -8.44; 16060 -9.77; 16966 -11.30; 17922 -13.05; 18932 -15.01; 19998 -17.18