GraphicEQ: 20 -8.2; 21 -8.3; 22 -8.5; 23 -8.8; 24 -9.0; 26 -9.5; 27 -9.7; 29 -10.1; 30 -10.2; 32 -10.6; 34 -10.8; 36 -11.0; 38 -11.3; 40 -11.4; 43 -11.6; 45 -11.7; 48 -11.7; 50 -11.8; 53 -11.8; 56 -11.9; 59 -11.9; 63 -12.0; 66 -12.1; 70 -12.2; 74 -12.2; 78 -12.3; 83 -12.4; 87 -12.3; 92 -12.2; 97 -12.1; 103 -12.0; 109 -11.8; 115 -11.6; 121 -11.5; 128 -11.3; 136 -11.2; 143 -11.0; 151 -10.8; 160 -10.5; 169 -10.2; 178 -9.9; 188 -9.6; 199 -9.3; 210 -9.0; 222 -8.6; 235 -8.1; 248 -7.6; 262 -7.2; 277 -6.9; 292 -6.6; 309 -6.4; 326 -6.3; 345 -6.7; 364 -7.3; 385 -7.8; 406 -8.3; 429 -8.9; 453 -9.5; 479 -10.1; 506 -10.7; 534 -11.1; 565 -11.3; 596 -11.4; 630 -11.4; 665 -11.3; 703 -11.1; 743 -10.9; 784 -10.7; 829 -10.4; 875 -10.2; 924 -10.1; 977 -10.0; 1032 -10.0; 1090 -9.8; 1151 -9.5; 1216 -9.0; 1284 -8.3; 1357 -7.6; 1433 -7.0; 1514 -6.4; 1599 -5.9; 1689 -5.2; 1784 -4.4; 1885 -3.8; 1991 -3.2; 2103 -2.9; 2221 -2.8; 2347 -2.8; 2479 -3.3; 2618 -3.9; 2766 -4.3; 2921 -4.7; 3086 -5.0; 3260 -4.8; 3443 -4.1; 3637 -3.3; 3842 -2.5; 4058 -1.3; 4287 -0.2; 4528 -1.1; 4783 -2.6; 5052 -3.9; 5337 -6.0; 5637 -7.5; 5955 -8.0; 6290 -8.6; 6644 -9.2; 7018 -8.4; 7414 -6.7; 7831 -6.0; 8272 -5.6; 8738 -5.2; 9230 -4.8; 9749 -4.1; 10298 -3.8; 10878 -3.9; 11490 -4.1; 12137 -4.4; 12821 -4.8; 13543 -5.2; 14305 -5.8; 15110 -6.4; 15961 -7.1; 16860 -7.9; 17809 -8.8; 18812 -9.8; 19871 -10.8