GraphicEQ: 20.00 -8.17; 21.13 -8.34; 22.32 -8.60; 23.57 -8.89; 24.90 -9.21; 26.30 -9.53; 27.78 -9.83; 29.35 -10.12; 31.00 -10.40; 32.74 -10.65; 34.59 -10.88; 36.53 -11.11; 38.59 -11.32; 40.76 -11.48; 43.06 -11.58; 45.48 -11.68; 48.04 -11.74; 50.75 -11.81; 53.60 -11.85; 56.62 -11.90; 59.81 -11.94; 63.18 -12.02; 66.73 -12.09; 70.49 -12.17; 74.46 -12.25; 78.65 -12.32; 83.08 -12.35; 87.76 -12.31; 92.70 -12.22; 97.92 -12.10; 103.43 -11.95; 109.25 -11.78; 115.40 -11.62; 121.90 -11.45; 128.76 -11.30; 136.01 -11.16; 143.67 -10.99; 151.76 -10.78; 160.30 -10.49; 169.33 -10.15; 178.86 -9.83; 188.93 -9.58; 199.57 -9.32; 210.81 -9.00; 222.67 -8.60; 235.21 -8.10; 248.45 -7.60; 262.44 -7.17; 277.22 -6.86; 292.82 -6.63; 309.31 -6.39; 326.72 -6.33; 345.12 -6.70; 364.55 -7.27; 385.07 -7.80; 406.75 -8.32; 429.65 -8.88; 453.84 -9.50; 479.39 -10.12; 506.38 -10.66; 534.89 -11.07; 565.01 -11.34; 596.82 -11.43; 630.42 -11.38; 665.91 -11.26; 703.40 -11.10; 743.00 -10.89; 784.83 -10.65; 829.02 -10.42; 875.69 -10.24; 925.00 -10.11; 977.07 -10.03; 1032.08 -9.96; 1090.19 -9.84; 1151.57 -9.50; 1216.40 -8.96; 1284.88 -8.30; 1357.22 -7.59; 1433.63 -6.96; 1514.35 -6.43; 1599.60 -5.88; 1689.66 -5.17; 1784.79 -4.40; 1885.27 -3.75; 1991.41 -3.19; 2103.53 -2.87; 2221.96 -2.78; 2347.06 -2.78; 2479.19 -3.28; 2618.77 -3.94; 2766.21 -4.34; 2921.95 -4.74; 3086.45 -5.00; 3260.22 -4.83; 3443.77 -4.08; 3637.66 -3.31; 3842.46 -2.50; 4058.79 -1.28; 4287.30 -0.20; 4528.67 -1.08; 4783.63 -2.58; 5052.95 -3.94; 5337.43 -5.96; 5637.93 -7.49; 5955.35 -7.95; 6290.63 -8.58; 6644.80 -9.21; 7018.90 -8.36; 7414.06 -6.73; 7831.47 -6.00; 8272.39 -5.59; 8738.12 -5.19; 9230.08 -4.75; 9749.73 -4.15; 10298.64 -3.84; 10878.45 -3.94; 11490.91 -4.13; 12137.85 -4.40; 12821.21 -4.77; 13543.04 -5.21; 14305.52 -5.75; 15110.92 -6.38; 15961.66 -7.09; 16860.30 -7.89; 17809.54 -8.78; 18812.22 -9.75; 19871.34 -10.82