GraphicEQ: 20 -10.93; 21 -11.10; 22 -11.30; 23 -11.53; 24 -11.77; 26 -12.23; 27 -12.45; 29 -12.83; 30 -13.01; 32 -13.32; 34 -13.59; 36 -13.83; 38 -14.04; 40 -14.20; 43 -14.36; 45 -14.43; 48 -14.52; 50 -14.56; 53 -14.62; 56 -14.66; 59 -14.71; 63 -14.79; 66 -14.85; 70 -14.93; 74 -15.02; 78 -15.09; 83 -15.12; 87 -15.10; 92 -15.02; 97 -14.90; 103 -14.74; 109 -14.57; 115 -14.40; 121 -14.25; 128 -14.09; 136 -13.93; 143 -13.79; 151 -13.57; 160 -13.28; 169 -12.94; 178 -12.64; 188 -12.38; 199 -12.11; 210 -11.80; 222 -11.39; 235 -10.89; 248 -10.39; 262 -9.96; 277 -9.64; 292 -9.40; 309 -9.16; 326 -9.13; 345 -9.48; 364 -10.02; 385 -10.57; 406 -11.08; 429 -11.65; 453 -12.26; 479 -12.89; 506 -13.43; 534 -13.84; 565 -14.11; 596 -14.20; 630 -14.16; 665 -14.05; 703 -13.88; 743 -13.67; 784 -13.43; 829 -13.20; 875 -13.02; 924 -12.89; 977 -12.81; 1032 -12.74; 1090 -12.61; 1151 -12.28; 1216 -11.74; 1284 -11.08; 1357 -10.37; 1433 -9.74; 1514 -9.21; 1599 -8.65; 1689 -7.94; 1784 -7.20; 1885 -6.52; 1991 -5.98; 2103 -5.66; 2221 -5.52; 2347 -5.60; 2479 -6.06; 2618 -6.67; 2766 -7.14; 2921 -7.51; 3086 -7.77; 3260 -7.56; 3443 -6.90; 3637 -6.10; 3842 -5.26; 4058 -4.09; 4287 -2.35; 4528 -0.53; 4783 -0.50; 5052 -3.93; 5337 -8.23; 5637 -10.34; 5955 -10.76; 6290 -11.57; 6644 -13.06; 7018 -14.39; 7414 -13.96; 7831 -11.53; 8272 -8.75; 8738 -6.72; 9230 -5.36; 9749 -4.48; 10298 -3.89; 10878 -3.76; 11490 -4.13; 12137 -4.98; 12821 -5.59; 13543 -6.26; 14305 -7.12; 15110 -8.21; 15961 -9.52; 16860 -11.03; 17809 -12.75; 18812 -14.68; 19871 -16.83