GraphicEQ: 20 -10.6318; 21 -10.8033; 22 -11.0021; 23 -11.2310; 24 -11.4708; 26 -11.9329; 27 -12.1464; 29 -12.5338; 30 -12.7134; 32 -13.0244; 34 -13.2881; 36 -13.5251; 38 -13.7367; 40 -13.9008; 43 -14.0620; 45 -14.1339; 48 -14.2215; 50 -14.2631; 53 -14.3198; 56 -14.3626; 59 -14.4095; 63 -14.4865; 66 -14.5496; 70 -14.6303; 74 -14.7179; 78 -14.7907; 83 -14.8246; 87 -14.7984; 92 -14.7150; 97 -14.6007; 103 -14.4399; 109 -14.2690; 115 -14.1035; 121 -13.9470; 128 -13.7920; 136 -13.6346; 143 -13.4853; 151 -13.2749; 160 -12.9756; 169 -12.6377; 178 -12.3407; 188 -12.0777; 199 -11.8059; 210 -11.5015; 222 -11.0949; 235 -10.5853; 248 -10.0900; 262 -9.6615; 277 -9.3385; 292 -9.0974; 309 -8.8639; 326 -8.8322; 345 -9.1752; 364 -9.7154; 385 -10.2720; 406 -10.7807; 429 -11.3473; 453 -11.9583; 479 -12.5870; 506 -13.1296; 534 -13.5395; 565 -13.8091; 596 -13.9036; 630 -13.8628; 665 -13.7451; 703 -13.5765; 743 -13.3656; 784 -13.1296; 829 -12.8974; 875 -12.7172; 924 -12.5918; 977 -12.5080; 1032 -12.4440; 1090 -12.3056; 1151 -11.9783; 1216 -11.4429; 1284 -10.7821; 1357 -10.0706; 1433 -9.4438; 1514 -8.9072; 1599 -8.3453; 1689 -7.6444; 1784 -6.8963; 1885 -6.2166; 1991 -5.6800; 2103 -5.3607; 2221 -5.2249; 2347 -5.3004; 2479 -5.7589; 2618 -6.3748; 2766 -6.8408; 2921 -7.2110; 3086 -7.4688; 3260 -7.2586; 3443 -6.5955; 3637 -5.8017; 3842 -4.9643; 4058 -3.7921; 4287 -2.0506; 4528 -0.2266; 4783 -0.2000; 5052 -3.6332; 5337 -7.9333; 5637 -10.0367; 5955 -10.4633; 6290 -11.2661; 6644 -12.7563; 7018 -14.0888; 7414 -13.6627; 7831 -11.2281; 8272 -8.4544; 8738 -6.4231; 9230 -5.0637; 9749 -4.1804; 10298 -3.5864; 10878 -3.4582; 11490 -3.8326; 12137 -4.6816; 12821 -5.2921; 13543 -5.9577; 14305 -6.8239; 15110 -7.9110; 15961 -9.2160; 16860 -10.7282; 17809 -12.4506; 18812 -14.3837; 19871 -16.5277