GraphicEQ: 20 -9.4317; 21 -9.6065; 22 -9.8070; 23 -10.0355; 24 -10.2752; 26 -10.7398; 27 -10.9543; 29 -11.3431; 30 -11.5250; 32 -11.8396; 34 -12.1070; 36 -12.3485; 38 -12.5653; 40 -12.7348; 43 -12.9065; 45 -12.9862; 48 -13.0880; 50 -13.1394; 53 -13.2109; 56 -13.2725; 59 -13.3404; 63 -13.4475; 66 -13.5341; 70 -13.6510; 74 -13.7761; 78 -13.8870; 83 -13.9711; 87 -13.9867; 92 -13.9537; 97 -13.8886; 103 -13.7861; 109 -13.6724; 115 -13.5606; 121 -13.4561; 128 -13.3557; 136 -13.2539; 143 -13.1464; 151 -12.9810; 160 -12.7253; 169 -12.4245; 178 -12.1577; 188 -11.9228; 199 -11.6772; 210 -11.3936; 222 -11.0042; 235 -10.5092; 248 -10.0278; 262 -9.6100; 277 -9.2952; 292 -9.0612; 309 -8.8346; 326 -8.8078; 345 -9.1548; 364 -9.6980; 385 -10.2566; 406 -10.7681; 429 -11.3368; 453 -11.9487; 479 -12.5778; 506 -13.1253; 534 -13.5355; 565 -13.8022; 596 -13.8950; 630 -13.8565; 665 -13.7400; 703 -13.5724; 743 -13.3623; 784 -13.1270; 829 -12.8953; 875 -12.7155; 924 -12.5904; 977 -12.5069; 1032 -12.4431; 1090 -12.3049; 1151 -11.9778; 1216 -11.4424; 1284 -10.7818; 1357 -10.0703; 1433 -9.4435; 1514 -8.9071; 1599 -8.3451; 1689 -7.6443; 1784 -6.8962; 1885 -6.2165; 1991 -5.6800; 2103 -5.3606; 2221 -5.2249; 2347 -5.3004; 2479 -5.7589; 2618 -6.3748; 2766 -6.8407; 2921 -7.2110; 3086 -7.4688; 3260 -7.2586; 3443 -6.5955; 3637 -5.8017; 3842 -4.9643; 4058 -3.7921; 4287 -2.0506; 4528 -0.2266; 4783 -0.2000; 5052 -3.6332; 5337 -7.9333; 5637 -10.0367; 5955 -10.4633; 6290 -11.2661; 6644 -12.7563; 7018 -14.0888; 7414 -13.6627; 7831 -11.2281; 8272 -8.4544; 8738 -6.4231; 9230 -5.0637; 9749 -4.1804; 10298 -3.5864; 10878 -3.4582; 11490 -3.8326; 12137 -4.6816; 12821 -5.2921; 13543 -5.9577; 14305 -6.8239; 15110 -7.9110; 15961 -9.2160; 16860 -10.7282; 17809 -12.4506; 18812 -14.3837; 19871 -16.5277