GraphicEQ: 20 -7.9693; 21 -8.1203; 22 -8.3242; 23 -8.5570; 24 -8.7951; 26 -9.2619; 27 -9.4689; 29 -9.8579; 30 -10.0383; 32 -10.3519; 34 -10.6108; 36 -10.8495; 38 -11.0615; 40 -11.2299; 43 -11.3810; 45 -11.4628; 48 -11.5418; 50 -11.5893; 53 -11.6416; 56 -11.6906; 59 -11.7302; 63 -11.8127; 66 -11.8767; 70 -11.9541; 74 -12.0424; 78 -12.1142; 83 -12.1511; 87 -12.1247; 92 -12.0391; 97 -11.9249; 103 -11.7650; 109 -11.5920; 115 -11.4292; 121 -11.2726; 128 -11.1133; 136 -10.9623; 143 -10.8086; 151 -10.6012; 160 -10.3049; 169 -9.9603; 178 -9.6582; 188 -9.4035; 199 -9.1308; 210 -8.8251; 222 -8.4283; 235 -7.9082; 248 -7.4113; 262 -6.9847; 277 -6.6587; 292 -6.4379; 309 -6.1945; 326 -6.1279; 345 -6.5014; 364 -7.0538; 385 -7.5977; 406 -8.1026; 429 -8.6675; 453 -9.2816; 479 -9.9143; 506 -10.4562; 534 -10.8631; 565 -11.1362; 596 -11.2308; 630 -11.1846; 665 -11.0670; 703 -10.9030; 743 -10.6916; 784 -10.4548; 829 -10.2194; 875 -10.0400; 924 -9.9150; 977 -9.8292; 1032 -9.7645; 1090 -9.6410; 1151 -9.3072; 1216 -8.7665; 1284 -8.1093; 1357 -7.3897; 1433 -6.7605; 1514 -6.2304; 1599 -5.6808; 1689 -4.9737; 1784 -4.2081; 1885 -3.5545; 1991 -2.9957; 2103 -2.6753; 2221 -2.5844; 2347 -2.5819; 2479 -3.0780; 2618 -3.7412; 2766 -4.1358; 2921 -4.5346; 3086 -4.7948; 3260 -4.6312; 3443 -3.8799; 3637 -3.1129; 3842 -2.3004; 4058 -1.0817; 4287 0.0000; 4528 -0.8792; 4783 -2.3739; 5052 -3.7376; 5337 -5.7557; 5637 -7.2847; 5955 -7.7517; 6290 -8.3787; 6644 -9.0087; 7018 -8.1646; 7414 -6.5341; 7831 -5.7971; 8272 -5.3864; 8738 -4.9896; 9230 -4.5528; 9749 -3.9473; 10298 -3.6368; 10878 -3.7447; 11490 -3.9305; 12137 -4.2037; 12821 -4.5656; 13543 -5.0144; 14305 -5.5512; 15110 -6.1752; 15961 -6.8880; 16860 -7.6882; 17809 -8.5761; 18812 -9.5519; 19871 -10.6155